digraph Tree {
node [shape=box] ;
0 [label="X[64] <= 10.707\ngini = 0.493\nsamples = 717\nvalue = [316, 401]"] ;
1 [label="X[46] <= -237.897\ngini = 0.219\nsamples = 24\nvalue = [3, 21]"] ;
0 -> 1 [labeldistance=2.5, labelangle=45, headlabel="True"] ;
2 [label="X[32] <= -455.417\ngini = 0.444\nsamples = 3\nvalue = [2, 1]"] ;
1 -> 2 ;
3 [label="gini = 0.0\nsamples = 1\nvalue = [0, 1]"] ;
2 -> 3 ;
4 [label="gini = 0.0\nsamples = 2\nvalue = [2, 0]"] ;
2 -> 4 ;
5 [label="X[63] <= 1.689\ngini = 0.091\nsamples = 21\nvalue = [1, 20]"] ;
1 -> 5 ;
6 [label="gini = 0.0\nsamples = 1\nvalue = [1, 0]"] ;
5 -> 6 ;
7 [label="gini = 0.0\nsamples = 20\nvalue = [0, 20]"] ;
5 -> 7 ;
8 [label="X[9] <= -0.074\ngini = 0.495\nsamples = 693\nvalue = [313, 380]"] ;
0 -> 8 [labeldistance=2.5, labelangle=-45, headlabel="False"] ;
9 [label="X[47] <= -265.3\ngini = 0.467\nsamples = 94\nvalue = [59, 35]"] ;
8 -> 9 ;
10 [label="gini = 0.0\nsamples = 4\nvalue = [0, 4]"] ;
9 -> 10 ;
11 [label="X[51] <= 6569.296\ngini = 0.452\nsamples = 90\nvalue = [59, 31]"] ;
9 -> 11 ;
12 [label="X[60] <= 22.676\ngini = 0.366\nsamples = 58\nvalue = [44, 14]"] ;
11 -> 12 ;
13 [label="X[3] <= 3886.855\ngini = 0.444\nsamples = 9\nvalue = [3, 6]"] ;
12 -> 13 ;
14 [label="gini = 0.0\nsamples = 5\nvalue = [0, 5]"] ;
13 -> 14 ;
15 [label="X[62] <= 36.067\ngini = 0.375\nsamples = 4\nvalue = [3, 1]"] ;
13 -> 15 ;
16 [label="gini = 0.0\nsamples = 1\nvalue = [0, 1]"] ;
15 -> 16 ;
17 [label="gini = 0.0\nsamples = 3\nvalue = [3, 0]"] ;
15 -> 17 ;
18 [label="X[49] <= 3468.38\ngini = 0.273\nsamples = 49\nvalue = [41, 8]"] ;
12 -> 18 ;
19 [label="gini = 0.0\nsamples = 1\nvalue = [0, 1]"] ;
18 -> 19 ;
20 [label="X[51] <= 6456.794\ngini = 0.249\nsamples = 48\nvalue = [41, 7]"] ;
18 -> 20 ;
21 [label="gini = 0.0\nsamples = 23\nvalue = [23, 0]"] ;
20 -> 21 ;
22 [label="X[69] <= 0.019\ngini = 0.403\nsamples = 25\nvalue = [18, 7]"] ;
20 -> 22 ;
23 [label="X[23] <= 6578.743\ngini = 0.492\nsamples = 16\nvalue = [9, 7]"] ;
22 -> 23 ;
24 [label="X[18] <= 6129.114\ngini = 0.444\nsamples = 9\nvalue = [3, 6]"] ;
23 -> 24 ;
25 [label="X[9] <= -0.216\ngini = 0.375\nsamples = 4\nvalue = [3, 1]"] ;
24 -> 25 ;
26 [label="gini = 0.0\nsamples = 1\nvalue = [0, 1]"] ;
25 -> 26 ;
27 [label="gini = 0.0\nsamples = 3\nvalue = [3, 0]"] ;
25 -> 27 ;
28 [label="gini = 0.0\nsamples = 5\nvalue = [0, 5]"] ;
24 -> 28 ;
29 [label="X[64] <= 22.733\ngini = 0.245\nsamples = 7\nvalue = [6, 1]"] ;
23 -> 29 ;
30 [label="gini = 0.0\nsamples = 1\nvalue = [0, 1]"] ;
29 -> 30 ;
31 [label="gini = 0.0\nsamples = 6\nvalue = [6, 0]"] ;
29 -> 31 ;
32 [label="gini = 0.0\nsamples = 9\nvalue = [9, 0]"] ;
22 -> 32 ;
33 [label="X[43] <= 20.932\ngini = 0.498\nsamples = 32\nvalue = [15, 17]"] ;
11 -> 33 ;
34 [label="gini = 0.0\nsamples = 5\nvalue = [5, 0]"] ;
33 -> 34 ;
35 [label="X[9] <= -0.108\ngini = 0.466\nsamples = 27\nvalue = [10, 17]"] ;
33 -> 35 ;
36 [label="X[12] <= -90976412.0\ngini = 0.291\nsamples = 17\nvalue = [3, 14]"] ;
35 -> 36 ;
37 [label="gini = 0.0\nsamples = 3\nvalue = [3, 0]"] ;
36 -> 37 ;
38 [label="gini = 0.0\nsamples = 14\nvalue = [0, 14]"] ;
36 -> 38 ;
39 [label="X[63] <= 22.003\ngini = 0.42\nsamples = 10\nvalue = [7, 3]"] ;
35 -> 39 ;
40 [label="X[69] <= -0.184\ngini = 0.375\nsamples = 4\nvalue = [1, 3]"] ;
39 -> 40 ;
41 [label="gini = 0.0\nsamples = 3\nvalue = [0, 3]"] ;
40 -> 41 ;
42 [label="gini = 0.0\nsamples = 1\nvalue = [1, 0]"] ;
40 -> 42 ;
43 [label="gini = 0.0\nsamples = 6\nvalue = [6, 0]"] ;
39 -> 43 ;
44 [label="X[45] <= 128.716\ngini = 0.488\nsamples = 599\nvalue = [254, 345]"] ;
8 -> 44 ;
45 [label="X[44] <= -29.401\ngini = 0.478\nsamples = 497\nvalue = [196, 301]"] ;
44 -> 45 ;
46 [label="X[40] <= 1.279\ngini = 0.373\nsamples = 109\nvalue = [27, 82]"] ;
45 -> 46 ;
47 [label="X[11] <= 10430941.0\ngini = 0.342\nsamples = 105\nvalue = [23, 82]"] ;
46 -> 47 ;
48 [label="X[64] <= 14.543\ngini = 0.287\nsamples = 92\nvalue = [16, 76]"] ;
47 -> 48 ;
49 [label="X[56] <= 3827.056\ngini = 0.375\nsamples = 4\nvalue = [3, 1]"] ;
48 -> 49 ;
50 [label="gini = 0.0\nsamples = 1\nvalue = [0, 1]"] ;
49 -> 50 ;
51 [label="gini = 0.0\nsamples = 3\nvalue = [3, 0]"] ;
49 -> 51 ;
52 [label="X[36] <= 16.592\ngini = 0.252\nsamples = 88\nvalue = [13, 75]"] ;
48 -> 52 ;
53 [label="X[45] <= 16.816\ngini = 0.486\nsamples = 12\nvalue = [5, 7]"] ;
52 -> 53 ;
54 [label="X[55] <= -46.0\ngini = 0.408\nsamples = 7\nvalue = [5, 2]"] ;
53 -> 54 ;
55 [label="gini = 0.0\nsamples = 2\nvalue = [0, 2]"] ;
54 -> 55 ;
56 [label="gini = 0.0\nsamples = 5\nvalue = [5, 0]"] ;
54 -> 56 ;
57 [label="gini = 0.0\nsamples = 5\nvalue = [0, 5]"] ;
53 -> 57 ;
58 [label="X[56] <= 3358.604\ngini = 0.188\nsamples = 76\nvalue = [8, 68]"] ;
52 -> 58 ;
59 [label="gini = 0.0\nsamples = 1\nvalue = [1, 0]"] ;
58 -> 59 ;
60 [label="X[63] <= 2.997\ngini = 0.169\nsamples = 75\nvalue = [7, 68]"] ;
58 -> 60 ;
61 [label="gini = 0.0\nsamples = 1\nvalue = [1, 0]"] ;
60 -> 61 ;
62 [label="X[51] <= 3464.324\ngini = 0.149\nsamples = 74\nvalue = [6, 68]"] ;
60 -> 62 ;
63 [label="gini = 0.0\nsamples = 1\nvalue = [1, 0]"] ;
62 -> 63 ;
64 [label="X[3] <= 3446.945\ngini = 0.128\nsamples = 73\nvalue = [5, 68]"] ;
62 -> 64 ;
65 [label="X[9] <= 0.024\ngini = 0.48\nsamples = 5\nvalue = [2, 3]"] ;
64 -> 65 ;
66 [label="gini = 0.0\nsamples = 3\nvalue = [0, 3]"] ;
65 -> 66 ;
67 [label="gini = 0.0\nsamples = 2\nvalue = [2, 0]"] ;
65 -> 67 ;
68 [label="X[12] <= 452058.008\ngini = 0.084\nsamples = 68\nvalue = [3, 65]"] ;
64 -> 68 ;
69 [label="X[62] <= 37.138\ngini = 0.033\nsamples = 60\nvalue = [1, 59]"] ;
68 -> 69 ;
70 [label="X[38] <= 30.628\ngini = 0.5\nsamples = 2\nvalue = [1, 1]"] ;
69 -> 70 ;
71 [label="gini = 0.0\nsamples = 1\nvalue = [1, 0]"] ;
70 -> 71 ;
72 [label="gini = 0.0\nsamples = 1\nvalue = [0, 1]"] ;
70 -> 72 ;
73 [label="gini = 0.0\nsamples = 58\nvalue = [0, 58]"] ;
69 -> 73 ;
74 [label="X[38] <= 24.807\ngini = 0.375\nsamples = 8\nvalue = [2, 6]"] ;
68 -> 74 ;
75 [label="gini = 0.0\nsamples = 6\nvalue = [0, 6]"] ;
74 -> 75 ;
76 [label="gini = 0.0\nsamples = 2\nvalue = [2, 0]"] ;
74 -> 76 ;
77 [label="X[12] <= -12447177.5\ngini = 0.497\nsamples = 13\nvalue = [7, 6]"] ;
47 -> 77 ;
78 [label="X[55] <= -58.0\ngini = 0.375\nsamples = 8\nvalue = [2, 6]"] ;
77 -> 78 ;
79 [label="gini = 0.0\nsamples = 2\nvalue = [2, 0]"] ;
78 -> 79 ;
80 [label="gini = 0.0\nsamples = 6\nvalue = [0, 6]"] ;
78 -> 80 ;
81 [label="gini = 0.0\nsamples = 5\nvalue = [5, 0]"] ;
77 -> 81 ;
82 [label="gini = 0.0\nsamples = 4\nvalue = [4, 0]"] ;
46 -> 82 ;
83 [label="X[60] <= 38.331\ngini = 0.492\nsamples = 388\nvalue = [169, 219]"] ;
45 -> 83 ;
84 [label="gini = 0.0\nsamples = 9\nvalue = [9, 0]"] ;
83 -> 84 ;
85 [label="X[2] <= 12007.285\ngini = 0.488\nsamples = 379\nvalue = [160, 219]"] ;
83 -> 85 ;
86 [label="X[0] <= 478.5\ngini = 0.484\nsamples = 371\nvalue = [152, 219]"] ;
85 -> 86 ;
87 [label="X[64] <= 89.305\ngini = 0.499\nsamples = 205\nvalue = [97, 108]"] ;
86 -> 87 ;
88 [label="X[60] <= 67.508\ngini = 0.495\nsamples = 194\nvalue = [87, 107]"] ;
87 -> 88 ;
89 [label="X[42] <= 0.139\ngini = 0.5\nsamples = 157\nvalue = [79, 78]"] ;
88 -> 89 ;
90 [label="X[15] <= 156.079\ngini = 0.498\nsamples = 143\nvalue = [67, 76]"] ;
89 -> 90 ;
91 [label="X[45] <= -93.207\ngini = 0.498\nsamples = 115\nvalue = [61, 54]"] ;
90 -> 91 ;
92 [label="X[69] <= -0.462\ngini = 0.278\nsamples = 18\nvalue = [15, 3]"] ;
91 -> 92 ;
93 [label="X[12] <= 10591246.5\ngini = 0.5\nsamples = 6\nvalue = [3, 3]"] ;
92 -> 93 ;
94 [label="gini = 0.0\nsamples = 3\nvalue = [0, 3]"] ;
93 -> 94 ;
95 [label="gini = 0.0\nsamples = 3\nvalue = [3, 0]"] ;
93 -> 95 ;
96 [label="gini = 0.0\nsamples = 12\nvalue = [12, 0]"] ;
92 -> 96 ;
97 [label="X[51] <= 3853.265\ngini = 0.499\nsamples = 97\nvalue = [46, 51]"] ;
91 -> 97 ;
98 [label="X[68] <= 5.938\ngini = 0.434\nsamples = 44\nvalue = [14, 30]"] ;
97 -> 98 ;
99 [label="X[45] <= 35.56\ngini = 0.375\nsamples = 40\nvalue = [10, 30]"] ;
98 -> 99 ;
100 [label="X[19] <= 170.276\ngini = 0.238\nsamples = 29\nvalue = [4, 25]"] ;
99 -> 100 ;
101 [label="X[64] <= 67.378\ngini = 0.494\nsamples = 9\nvalue = [4, 5]"] ;
100 -> 101 ;
102 [label="X[68] <= -0.041\ngini = 0.32\nsamples = 5\nvalue = [4, 1]"] ;
101 -> 102 ;
103 [label="gini = 0.0\nsamples = 1\nvalue = [0, 1]"] ;
102 -> 103 ;
104 [label="gini = 0.0\nsamples = 4\nvalue = [4, 0]"] ;
102 -> 104 ;
105 [label="gini = 0.0\nsamples = 4\nvalue = [0, 4]"] ;
101 -> 105 ;
106 [label="gini = 0.0\nsamples = 20\nvalue = [0, 20]"] ;
100 -> 106 ;
107 [label="X[44] <= 32.108\ngini = 0.496\nsamples = 11\nvalue = [6, 5]"] ;
99 -> 107 ;
108 [label="gini = 0.0\nsamples = 4\nvalue = [0, 4]"] ;
107 -> 108 ;
109 [label="X[2] <= 3867.345\ngini = 0.245\nsamples = 7\nvalue = [6, 1]"] ;
107 -> 109 ;
110 [label="gini = 0.0\nsamples = 6\nvalue = [6, 0]"] ;
109 -> 110 ;
111 [label="gini = 0.0\nsamples = 1\nvalue = [0, 1]"] ;
109 -> 111 ;
112 [label="gini = 0.0\nsamples = 4\nvalue = [4, 0]"] ;
98 -> 112 ;
113 [label="X[69] <= -0.463\ngini = 0.478\nsamples = 53\nvalue = [32, 21]"] ;
97 -> 113 ;
114 [label="X[60] <= 59.491\ngini = 0.32\nsamples = 10\nvalue = [2, 8]"] ;
113 -> 114 ;
115 [label="gini = 0.0\nsamples = 7\nvalue = [0, 7]"] ;
114 -> 115 ;
116 [label="X[10] <= -88457.74\ngini = 0.444\nsamples = 3\nvalue = [2, 1]"] ;
114 -> 116 ;
117 [label="gini = 0.0\nsamples = 1\nvalue = [0, 1]"] ;
116 -> 117 ;
118 [label="gini = 0.0\nsamples = 2\nvalue = [2, 0]"] ;
116 -> 118 ;
119 [label="X[8] <= 160748.445\ngini = 0.422\nsamples = 43\nvalue = [30, 13]"] ;
113 -> 119 ;
120 [label="X[22] <= 6410.726\ngini = 0.463\nsamples = 11\nvalue = [4, 7]"] ;
119 -> 120 ;
121 [label="X[14] <= 928.569\ngini = 0.444\nsamples = 6\nvalue = [4, 2]"] ;
120 -> 121 ;
122 [label="gini = 0.0\nsamples = 2\nvalue = [0, 2]"] ;
121 -> 122 ;
123 [label="gini = 0.0\nsamples = 4\nvalue = [4, 0]"] ;
121 -> 123 ;
124 [label="gini = 0.0\nsamples = 5\nvalue = [0, 5]"] ;
120 -> 124 ;
125 [label="X[18] <= 3722.611\ngini = 0.305\nsamples = 32\nvalue = [26, 6]"] ;
119 -> 125 ;
126 [label="gini = 0.0\nsamples = 2\nvalue = [0, 2]"] ;
125 -> 126 ;
127 [label="X[14] <= 1050.69\ngini = 0.231\nsamples = 30\nvalue = [26, 4]"] ;
125 -> 127 ;
128 [label="X[42] <= 0.133\ngini = 0.133\nsamples = 28\nvalue = [26, 2]"] ;
127 -> 128 ;
129 [label="X[49] <= 3850.785\ngini = 0.071\nsamples = 27\nvalue = [26, 1]"] ;
128 -> 129 ;
130 [label="gini = 0.0\nsamples = 1\nvalue = [0, 1]"] ;
129 -> 130 ;
131 [label="gini = 0.0\nsamples = 26\nvalue = [26, 0]"] ;
129 -> 131 ;
132 [label="gini = 0.0\nsamples = 1\nvalue = [0, 1]"] ;
128 -> 132 ;
133 [label="gini = 0.0\nsamples = 2\nvalue = [0, 2]"] ;
127 -> 133 ;
134 [label="X[62] <= 53.03\ngini = 0.337\nsamples = 28\nvalue = [6, 22]"] ;
90 -> 134 ;
135 [label="X[2] <= 4183.115\ngini = 0.444\nsamples = 6\nvalue = [4, 2]"] ;
134 -> 135 ;
136 [label="gini = 0.0\nsamples = 4\nvalue = [4, 0]"] ;
135 -> 136 ;
137 [label="gini = 0.0\nsamples = 2\nvalue = [0, 2]"] ;
135 -> 137 ;
138 [label="X[4] <= 6656.82\ngini = 0.165\nsamples = 22\nvalue = [2, 20]"] ;
134 -> 138 ;
139 [label="gini = 0.0\nsamples = 20\nvalue = [0, 20]"] ;
138 -> 139 ;
140 [label="gini = 0.0\nsamples = 2\nvalue = [2, 0]"] ;
138 -> 140 ;
141 [label="X[70] <= -6.438\ngini = 0.245\nsamples = 14\nvalue = [12, 2]"] ;
89 -> 141 ;
142 [label="gini = 0.0\nsamples = 1\nvalue = [0, 1]"] ;
141 -> 142 ;
143 [label="X[45] <= -110.046\ngini = 0.142\nsamples = 13\nvalue = [12, 1]"] ;
141 -> 143 ;
144 [label="gini = 0.0\nsamples = 1\nvalue = [0, 1]"] ;
143 -> 144 ;
145 [label="gini = 0.0\nsamples = 12\nvalue = [12, 0]"] ;
143 -> 145 ;
146 [label="X[54] <= 54.0\ngini = 0.339\nsamples = 37\nvalue = [8, 29]"] ;
88 -> 146 ;
147 [label="X[39] <= 1.284\ngini = 0.284\nsamples = 35\nvalue = [6, 29]"] ;
146 -> 147 ;
148 [label="X[50] <= 6953.505\ngini = 0.213\nsamples = 33\nvalue = [4, 29]"] ;
147 -> 148 ;
149 [label="X[64] <= 88.946\ngini = 0.124\nsamples = 30\nvalue = [2, 28]"] ;
148 -> 149 ;
150 [label="gini = 0.0\nsamples = 27\nvalue = [0, 27]"] ;
149 -> 150 ;
151 [label="X[45] <= -87.268\ngini = 0.444\nsamples = 3\nvalue = [2, 1]"] ;
149 -> 151 ;
152 [label="gini = 0.0\nsamples = 1\nvalue = [0, 1]"] ;
151 -> 152 ;
153 [label="gini = 0.0\nsamples = 2\nvalue = [2, 0]"] ;
151 -> 153 ;
154 [label="X[13] <= 38.387\ngini = 0.444\nsamples = 3\nvalue = [2, 1]"] ;
148 -> 154 ;
155 [label="gini = 0.0\nsamples = 2\nvalue = [2, 0]"] ;
154 -> 155 ;
156 [label="gini = 0.0\nsamples = 1\nvalue = [0, 1]"] ;
154 -> 156 ;
157 [label="gini = 0.0\nsamples = 2\nvalue = [2, 0]"] ;
147 -> 157 ;
158 [label="gini = 0.0\nsamples = 2\nvalue = [2, 0]"] ;
146 -> 158 ;
159 [label="X[1] <= 52.5\ngini = 0.165\nsamples = 11\nvalue = [10, 1]"] ;
87 -> 159 ;
160 [label="gini = 0.0\nsamples = 1\nvalue = [0, 1]"] ;
159 -> 160 ;
161 [label="gini = 0.0\nsamples = 10\nvalue = [10, 0]"] ;
159 -> 161 ;
162 [label="X[48] <= 74.041\ngini = 0.443\nsamples = 166\nvalue = [55, 111]"] ;
86 -> 162 ;
163 [label="X[8] <= 1547802.25\ngini = 0.426\nsamples = 159\nvalue = [49, 110]"] ;
162 -> 163 ;
164 [label="X[47] <= -93.477\ngini = 0.412\nsamples = 155\nvalue = [45, 110]"] ;
163 -> 164 ;
165 [label="gini = 0.0\nsamples = 4\nvalue = [4, 0]"] ;
164 -> 165 ;
166 [label="X[61] <= 71.136\ngini = 0.396\nsamples = 151\nvalue = [41, 110]"] ;
164 -> 166 ;
167 [label="X[48] <= 56.68\ngini = 0.382\nsamples = 148\nvalue = [38, 110]"] ;
166 -> 167 ;
168 [label="X[42] <= 0.587\ngini = 0.416\nsamples = 129\nvalue = [38, 91]"] ;
167 -> 168 ;
169 [label="X[6] <= 6762.544\ngini = 0.348\nsamples = 98\nvalue = [22, 76]"] ;
168 -> 169 ;
170 [label="gini = 0.0\nsamples = 2\nvalue = [2, 0]"] ;
169 -> 170 ;
171 [label="X[48] <= 50.914\ngini = 0.33\nsamples = 96\nvalue = [20, 76]"] ;
169 -> 171 ;
172 [label="X[19] <= 933.494\ngini = 0.295\nsamples = 89\nvalue = [16, 73]"] ;
171 -> 172 ;
173 [label="X[13] <= 461.568\ngini = 0.408\nsamples = 49\nvalue = [14, 35]"] ;
172 -> 173 ;
174 [label="X[43] <= 25.846\ngini = 0.295\nsamples = 39\nvalue = [7, 32]"] ;
173 -> 174 ;
175 [label="X[62] <= 48.182\ngini = 0.202\nsamples = 35\nvalue = [4, 31]"] ;
174 -> 175 ;
176 [label="gini = 0.0\nsamples = 1\nvalue = [1, 0]"] ;
175 -> 176 ;
177 [label="X[58] <= 0.5\ngini = 0.161\nsamples = 34\nvalue = [3, 31]"] ;
175 -> 177 ;
178 [label="X[65] <= -11.119\ngini = 0.114\nsamples = 33\nvalue = [2, 31]"] ;
177 -> 178 ;
179 [label="gini = 0.0\nsamples = 27\nvalue = [0, 27]"] ;
178 -> 179 ;
180 [label="X[42] <= 0.306\ngini = 0.444\nsamples = 6\nvalue = [2, 4]"] ;
178 -> 180 ;
181 [label="gini = 0.0\nsamples = 4\nvalue = [0, 4]"] ;
180 -> 181 ;
182 [label="gini = 0.0\nsamples = 2\nvalue = [2, 0]"] ;
180 -> 182 ;
183 [label="gini = 0.0\nsamples = 1\nvalue = [1, 0]"] ;
177 -> 183 ;
184 [label="X[41] <= 0.498\ngini = 0.375\nsamples = 4\nvalue = [3, 1]"] ;
174 -> 184 ;
185 [label="gini = 0.0\nsamples = 3\nvalue = [3, 0]"] ;
184 -> 185 ;
186 [label="gini = 0.0\nsamples = 1\nvalue = [0, 1]"] ;
184 -> 186 ;
187 [label="X[59] <= 74.397\ngini = 0.42\nsamples = 10\nvalue = [7, 3]"] ;
173 -> 187 ;
188 [label="gini = 0.0\nsamples = 7\nvalue = [7, 0]"] ;
187 -> 188 ;
189 [label="gini = 0.0\nsamples = 3\nvalue = [0, 3]"] ;
187 -> 189 ;
190 [label="X[18] <= 10608.707\ngini = 0.095\nsamples = 40\nvalue = [2, 38]"] ;
172 -> 190 ;
191 [label="X[60] <= 86.015\ngini = 0.05\nsamples = 39\nvalue = [1, 38]"] ;
190 -> 191 ;
192 [label="gini = 0.0\nsamples = 36\nvalue = [0, 36]"] ;
191 -> 192 ;
193 [label="X[41] <= 0.782\ngini = 0.444\nsamples = 3\nvalue = [1, 2]"] ;
191 -> 193 ;
194 [label="gini = 0.0\nsamples = 1\nvalue = [1, 0]"] ;
193 -> 194 ;
195 [label="gini = 0.0\nsamples = 2\nvalue = [0, 2]"] ;
193 -> 195 ;
196 [label="gini = 0.0\nsamples = 1\nvalue = [1, 0]"] ;
190 -> 196 ;
197 [label="X[5] <= 9155.82\ngini = 0.49\nsamples = 7\nvalue = [4, 3]"] ;
171 -> 197 ;
198 [label="gini = 0.0\nsamples = 3\nvalue = [0, 3]"] ;
197 -> 198 ;
199 [label="gini = 0.0\nsamples = 4\nvalue = [4, 0]"] ;
197 -> 199 ;
200 [label="X[13] <= 108.303\ngini = 0.499\nsamples = 31\nvalue = [16, 15]"] ;
168 -> 200 ;
201 [label="X[2] <= 11753.25\ngini = 0.388\nsamples = 19\nvalue = [5, 14]"] ;
200 -> 201 ;
202 [label="X[64] <= 86.871\ngini = 0.291\nsamples = 17\nvalue = [3, 14]"] ;
201 -> 202 ;
203 [label="X[32] <= 205.321\ngini = 0.219\nsamples = 16\nvalue = [2, 14]"] ;
202 -> 203 ;
204 [label="gini = 0.0\nsamples = 1\nvalue = [1, 0]"] ;
203 -> 204 ;
205 [label="X[46] <= 336.268\ngini = 0.124\nsamples = 15\nvalue = [1, 14]"] ;
203 -> 205 ;
206 [label="gini = 0.0\nsamples = 13\nvalue = [0, 13]"] ;
205 -> 206 ;
207 [label="X[60] <= 61.339\ngini = 0.5\nsamples = 2\nvalue = [1, 1]"] ;
205 -> 207 ;
208 [label="gini = 0.0\nsamples = 1\nvalue = [1, 0]"] ;
207 -> 208 ;
209 [label="gini = 0.0\nsamples = 1\nvalue = [0, 1]"] ;
207 -> 209 ;
210 [label="gini = 0.0\nsamples = 1\nvalue = [1, 0]"] ;
202 -> 210 ;
211 [label="gini = 0.0\nsamples = 2\nvalue = [2, 0]"] ;
201 -> 211 ;
212 [label="X[33] <= -73.416\ngini = 0.153\nsamples = 12\nvalue = [11, 1]"] ;
200 -> 212 ;
213 [label="gini = 0.0\nsamples = 1\nvalue = [0, 1]"] ;
212 -> 213 ;
214 [label="gini = 0.0\nsamples = 11\nvalue = [11, 0]"] ;
212 -> 214 ;
215 [label="gini = 0.0\nsamples = 19\nvalue = [0, 19]"] ;
167 -> 215 ;
216 [label="gini = 0.0\nsamples = 3\nvalue = [3, 0]"] ;
166 -> 216 ;
217 [label="gini = 0.0\nsamples = 4\nvalue = [4, 0]"] ;
163 -> 217 ;
218 [label="X[55] <= 68.0\ngini = 0.245\nsamples = 7\nvalue = [6, 1]"] ;
162 -> 218 ;
219 [label="gini = 0.0\nsamples = 1\nvalue = [0, 1]"] ;
218 -> 219 ;
220 [label="gini = 0.0\nsamples = 6\nvalue = [6, 0]"] ;
218 -> 220 ;
221 [label="gini = 0.0\nsamples = 8\nvalue = [8, 0]"] ;
85 -> 221 ;
222 [label="X[60] <= 57.429\ngini = 0.491\nsamples = 102\nvalue = [58, 44]"] ;
44 -> 222 ;
223 [label="X[35] <= 10939.49\ngini = 0.467\nsamples = 86\nvalue = [54, 32]"] ;
222 -> 223 ;
224 [label="X[33] <= -32.558\ngini = 0.493\nsamples = 70\nvalue = [39, 31]"] ;
223 -> 224 ;
225 [label="X[62] <= 59.078\ngini = 0.487\nsamples = 43\nvalue = [18, 25]"] ;
224 -> 225 ;
226 [label="X[45] <= 155.245\ngini = 0.46\nsamples = 39\nvalue = [14, 25]"] ;
225 -> 226 ;
227 [label="gini = 0.0\nsamples = 3\nvalue = [3, 0]"] ;
226 -> 227 ;
228 [label="X[70] <= 0.006\ngini = 0.424\nsamples = 36\nvalue = [11, 25]"] ;
226 -> 228 ;
229 [label="X[44] <= -158.348\ngini = 0.124\nsamples = 15\nvalue = [1, 14]"] ;
228 -> 229 ;
230 [label="X[64] <= 17.651\ngini = 0.5\nsamples = 2\nvalue = [1, 1]"] ;
229 -> 230 ;
231 [label="gini = 0.0\nsamples = 1\nvalue = [0, 1]"] ;
230 -> 231 ;
232 [label="gini = 0.0\nsamples = 1\nvalue = [1, 0]"] ;
230 -> 232 ;
233 [label="gini = 0.0\nsamples = 13\nvalue = [0, 13]"] ;
229 -> 233 ;
234 [label="X[11] <= 141018448.0\ngini = 0.499\nsamples = 21\nvalue = [10, 11]"] ;
228 -> 234 ;
235 [label="X[11] <= 3898516.25\ngini = 0.426\nsamples = 13\nvalue = [9, 4]"] ;
234 -> 235 ;
236 [label="X[37] <= 24.483\ngini = 0.32\nsamples = 5\nvalue = [1, 4]"] ;
235 -> 236 ;
237 [label="gini = 0.0\nsamples = 4\nvalue = [0, 4]"] ;
236 -> 237 ;
238 [label="gini = 0.0\nsamples = 1\nvalue = [1, 0]"] ;
236 -> 238 ;
239 [label="gini = 0.0\nsamples = 8\nvalue = [8, 0]"] ;
235 -> 239 ;
240 [label="X[13] <= 4458.394\ngini = 0.219\nsamples = 8\nvalue = [1, 7]"] ;
234 -> 240 ;
241 [label="gini = 0.0\nsamples = 7\nvalue = [0, 7]"] ;
240 -> 241 ;
242 [label="gini = 0.0\nsamples = 1\nvalue = [1, 0]"] ;
240 -> 242 ;
243 [label="gini = 0.0\nsamples = 4\nvalue = [4, 0]"] ;
225 -> 243 ;
244 [label="X[51] <= 3484.13\ngini = 0.346\nsamples = 27\nvalue = [21, 6]"] ;
224 -> 244 ;
245 [label="gini = 0.0\nsamples = 2\nvalue = [0, 2]"] ;
244 -> 245 ;
246 [label="X[0] <= 111.5\ngini = 0.269\nsamples = 25\nvalue = [21, 4]"] ;
244 -> 246 ;
247 [label="gini = 0.0\nsamples = 2\nvalue = [0, 2]"] ;
246 -> 247 ;
248 [label="X[8] <= 1352918.062\ngini = 0.159\nsamples = 23\nvalue = [21, 2]"] ;
246 -> 248 ;
249 [label="X[7] <= -87149.957\ngini = 0.087\nsamples = 22\nvalue = [21, 1]"] ;
248 -> 249 ;
250 [label="gini = 0.0\nsamples = 1\nvalue = [0, 1]"] ;
249 -> 250 ;
251 [label="gini = 0.0\nsamples = 21\nvalue = [21, 0]"] ;
249 -> 251 ;
252 [label="gini = 0.0\nsamples = 1\nvalue = [0, 1]"] ;
248 -> 252 ;
253 [label="X[64] <= 59.328\ngini = 0.117\nsamples = 16\nvalue = [15, 1]"] ;
223 -> 253 ;
254 [label="gini = 0.0\nsamples = 15\nvalue = [15, 0]"] ;
253 -> 254 ;
255 [label="gini = 0.0\nsamples = 1\nvalue = [0, 1]"] ;
253 -> 255 ;
256 [label="X[6] <= 21609.127\ngini = 0.375\nsamples = 16\nvalue = [4, 12]"] ;
222 -> 256 ;
257 [label="X[62] <= 50.168\ngini = 0.494\nsamples = 9\nvalue = [4, 5]"] ;
256 -> 257 ;
258 [label="gini = 0.0\nsamples = 4\nvalue = [0, 4]"] ;
257 -> 258 ;
259 [label="X[3] <= 10733.89\ngini = 0.32\nsamples = 5\nvalue = [4, 1]"] ;
257 -> 259 ;
260 [label="gini = 0.0\nsamples = 4\nvalue = [4, 0]"] ;
259 -> 260 ;
261 [label="gini = 0.0\nsamples = 1\nvalue = [0, 1]"] ;
259 -> 261 ;
262 [label="gini = 0.0\nsamples = 7\nvalue = [0, 7]"] ;
256 -> 262 ;
}