digraph Tree {
node [shape=box] ;
0 [label="X[9] <= 0.099\ngini = 0.496\nsamples = 717\nvalue = [390, 327]"] ;
1 [label="X[8] <= -1659150400.0\ngini = 0.5\nsamples = 574\nvalue = [294, 280]"] ;
0 -> 1 [labeldistance=2.5, labelangle=45, headlabel="True"] ;
2 [label="X[45] <= -0.0\ngini = 0.26\nsamples = 13\nvalue = [2, 11]"] ;
1 -> 2 ;
3 [label="gini = 0.0\nsamples = 2\nvalue = [2, 0]"] ;
2 -> 3 ;
4 [label="gini = 0.0\nsamples = 11\nvalue = [0, 11]"] ;
2 -> 4 ;
5 [label="X[37] <= 9.708\ngini = 0.499\nsamples = 561\nvalue = [292, 269]"] ;
1 -> 5 ;
6 [label="X[40] <= 1.32\ngini = 0.419\nsamples = 57\nvalue = [40, 17]"] ;
5 -> 6 ;
7 [label="X[43] <= 24.918\ngini = 0.283\nsamples = 41\nvalue = [34, 7]"] ;
6 -> 7 ;
8 [label="X[48] <= -7.973\ngini = 0.444\nsamples = 6\nvalue = [2, 4]"] ;
7 -> 8 ;
9 [label="gini = 0.0\nsamples = 4\nvalue = [0, 4]"] ;
8 -> 9 ;
10 [label="gini = 0.0\nsamples = 2\nvalue = [2, 0]"] ;
8 -> 10 ;
11 [label="X[14] <= 975.67\ngini = 0.157\nsamples = 35\nvalue = [32, 3]"] ;
7 -> 11 ;
12 [label="X[62] <= 36.649\ngini = 0.444\nsamples = 3\nvalue = [1, 2]"] ;
11 -> 12 ;
13 [label="gini = 0.0\nsamples = 1\nvalue = [1, 0]"] ;
12 -> 13 ;
14 [label="gini = 0.0\nsamples = 2\nvalue = [0, 2]"] ;
12 -> 14 ;
15 [label="X[42] <= -0.299\ngini = 0.061\nsamples = 32\nvalue = [31, 1]"] ;
11 -> 15 ;
16 [label="gini = 0.0\nsamples = 1\nvalue = [0, 1]"] ;
15 -> 16 ;
17 [label="gini = 0.0\nsamples = 31\nvalue = [31, 0]"] ;
15 -> 17 ;
18 [label="X[45] <= 0.0\ngini = 0.469\nsamples = 16\nvalue = [6, 10]"] ;
6 -> 18 ;
19 [label="X[60] <= 19.757\ngini = 0.355\nsamples = 13\nvalue = [3, 10]"] ;
18 -> 19 ;
20 [label="X[63] <= 6.145\ngini = 0.18\nsamples = 10\nvalue = [1, 9]"] ;
19 -> 20 ;
21 [label="gini = 0.0\nsamples = 1\nvalue = [1, 0]"] ;
20 -> 21 ;
22 [label="gini = 0.0\nsamples = 9\nvalue = [0, 9]"] ;
20 -> 22 ;
23 [label="X[13] <= -40260.25\ngini = 0.444\nsamples = 3\nvalue = [2, 1]"] ;
19 -> 23 ;
24 [label="gini = 0.0\nsamples = 2\nvalue = [2, 0]"] ;
23 -> 24 ;
25 [label="gini = 0.0\nsamples = 1\nvalue = [0, 1]"] ;
23 -> 25 ;
26 [label="gini = 0.0\nsamples = 3\nvalue = [3, 0]"] ;
18 -> 26 ;
27 [label="X[19] <= 0.002\ngini = 0.5\nsamples = 504\nvalue = [252, 252]"] ;
5 -> 27 ;
28 [label="X[69] <= 0.819\ngini = 0.5\nsamples = 481\nvalue = [247, 234]"] ;
27 -> 28 ;
29 [label="X[69] <= -1.828\ngini = 0.5\nsamples = 444\nvalue = [220, 224]"] ;
28 -> 29 ;
30 [label="gini = 0.0\nsamples = 7\nvalue = [0, 7]"] ;
29 -> 30 ;
31 [label="X[60] <= 60.03\ngini = 0.5\nsamples = 437\nvalue = [220, 217]"] ;
29 -> 31 ;
32 [label="X[39] <= 0.955\ngini = 0.499\nsamples = 363\nvalue = [173, 190]"] ;
31 -> 32 ;
33 [label="X[16] <= 0.02\ngini = 0.494\nsamples = 178\nvalue = [99, 79]"] ;
32 -> 33 ;
34 [label="X[49] <= 0.019\ngini = 0.499\nsamples = 163\nvalue = [85, 78]"] ;
33 -> 34 ;
35 [label="X[64] <= 19.546\ngini = 0.493\nsamples = 145\nvalue = [81, 64]"] ;
34 -> 35 ;
36 [label="X[36] <= 22.448\ngini = 0.484\nsamples = 51\nvalue = [21, 30]"] ;
35 -> 36 ;
37 [label="X[45] <= 0.0\ngini = 0.444\nsamples = 24\nvalue = [16, 8]"] ;
36 -> 37 ;
38 [label="X[9] <= 0.044\ngini = 0.32\nsamples = 20\nvalue = [16, 4]"] ;
37 -> 38 ;
39 [label="X[49] <= 0.019\ngini = 0.198\nsamples = 18\nvalue = [16, 2]"] ;
38 -> 39 ;
40 [label="X[9] <= -0.258\ngini = 0.111\nsamples = 17\nvalue = [16, 1]"] ;
39 -> 40 ;
41 [label="gini = 0.0\nsamples = 1\nvalue = [0, 1]"] ;
40 -> 41 ;
42 [label="gini = 0.0\nsamples = 16\nvalue = [16, 0]"] ;
40 -> 42 ;
43 [label="gini = 0.0\nsamples = 1\nvalue = [0, 1]"] ;
39 -> 43 ;
44 [label="gini = 0.0\nsamples = 2\nvalue = [0, 2]"] ;
38 -> 44 ;
45 [label="gini = 0.0\nsamples = 4\nvalue = [0, 4]"] ;
37 -> 45 ;
46 [label="X[45] <= 0.0\ngini = 0.302\nsamples = 27\nvalue = [5, 22]"] ;
36 -> 46 ;
47 [label="X[64] <= 18.314\ngini = 0.211\nsamples = 25\nvalue = [3, 22]"] ;
46 -> 47 ;
48 [label="gini = 0.0\nsamples = 19\nvalue = [0, 19]"] ;
47 -> 48 ;
49 [label="X[69] <= 0.119\ngini = 0.5\nsamples = 6\nvalue = [3, 3]"] ;
47 -> 49 ;
50 [label="gini = 0.0\nsamples = 3\nvalue = [0, 3]"] ;
49 -> 50 ;
51 [label="gini = 0.0\nsamples = 3\nvalue = [3, 0]"] ;
49 -> 51 ;
52 [label="gini = 0.0\nsamples = 2\nvalue = [2, 0]"] ;
46 -> 52 ;
53 [label="X[54] <= 6.0\ngini = 0.462\nsamples = 94\nvalue = [60, 34]"] ;
35 -> 53 ;
54 [label="gini = 0.0\nsamples = 4\nvalue = [0, 4]"] ;
53 -> 54 ;
55 [label="X[63] <= 21.449\ngini = 0.444\nsamples = 90\nvalue = [60, 30]"] ;
53 -> 55 ;
56 [label="gini = 0.0\nsamples = 13\nvalue = [13, 0]"] ;
55 -> 56 ;
57 [label="X[70] <= 0.032\ngini = 0.476\nsamples = 77\nvalue = [47, 30]"] ;
55 -> 57 ;
58 [label="X[54] <= 82.0\ngini = 0.499\nsamples = 44\nvalue = [21, 23]"] ;
57 -> 58 ;
59 [label="X[13] <= -17977.317\ngini = 0.464\nsamples = 30\nvalue = [19, 11]"] ;
58 -> 59 ;
60 [label="X[41] <= -0.146\ngini = 0.48\nsamples = 15\nvalue = [6, 9]"] ;
59 -> 60 ;
61 [label="X[9] <= -0.076\ngini = 0.375\nsamples = 12\nvalue = [3, 9]"] ;
60 -> 61 ;
62 [label="gini = 0.0\nsamples = 2\nvalue = [2, 0]"] ;
61 -> 62 ;
63 [label="X[23] <= 0.019\ngini = 0.18\nsamples = 10\nvalue = [1, 9]"] ;
61 -> 63 ;
64 [label="gini = 0.0\nsamples = 9\nvalue = [0, 9]"] ;
63 -> 64 ;
65 [label="gini = 0.0\nsamples = 1\nvalue = [1, 0]"] ;
63 -> 65 ;
66 [label="gini = 0.0\nsamples = 3\nvalue = [3, 0]"] ;
60 -> 66 ;
67 [label="X[65] <= -39.141\ngini = 0.231\nsamples = 15\nvalue = [13, 2]"] ;
59 -> 67 ;
68 [label="X[69] <= -0.697\ngini = 0.133\nsamples = 14\nvalue = [13, 1]"] ;
67 -> 68 ;
69 [label="gini = 0.0\nsamples = 1\nvalue = [0, 1]"] ;
68 -> 69 ;
70 [label="gini = 0.0\nsamples = 13\nvalue = [13, 0]"] ;
68 -> 70 ;
71 [label="gini = 0.0\nsamples = 1\nvalue = [0, 1]"] ;
67 -> 71 ;
72 [label="X[45] <= 0.0\ngini = 0.245\nsamples = 14\nvalue = [2, 12]"] ;
58 -> 72 ;
73 [label="gini = 0.0\nsamples = 11\nvalue = [0, 11]"] ;
72 -> 73 ;
74 [label="X[6] <= 14822946.0\ngini = 0.444\nsamples = 3\nvalue = [2, 1]"] ;
72 -> 74 ;
75 [label="gini = 0.0\nsamples = 1\nvalue = [0, 1]"] ;
74 -> 75 ;
76 [label="gini = 0.0\nsamples = 2\nvalue = [2, 0]"] ;
74 -> 76 ;
77 [label="X[10] <= -10.604\ngini = 0.334\nsamples = 33\nvalue = [26, 7]"] ;
57 -> 77 ;
78 [label="X[8] <= -870330528.0\ngini = 0.238\nsamples = 29\nvalue = [25, 4]"] ;
77 -> 78 ;
79 [label="X[9] <= -0.051\ngini = 0.463\nsamples = 11\nvalue = [7, 4]"] ;
78 -> 79 ;
80 [label="gini = 0.0\nsamples = 6\nvalue = [6, 0]"] ;
79 -> 80 ;
81 [label="X[10] <= -229.932\ngini = 0.32\nsamples = 5\nvalue = [1, 4]"] ;
79 -> 81 ;
82 [label="gini = 0.0\nsamples = 4\nvalue = [0, 4]"] ;
81 -> 82 ;
83 [label="gini = 0.0\nsamples = 1\nvalue = [1, 0]"] ;
81 -> 83 ;
84 [label="gini = 0.0\nsamples = 18\nvalue = [18, 0]"] ;
78 -> 84 ;
85 [label="X[32] <= 0.0\ngini = 0.375\nsamples = 4\nvalue = [1, 3]"] ;
77 -> 85 ;
86 [label="gini = 0.0\nsamples = 3\nvalue = [0, 3]"] ;
85 -> 86 ;
87 [label="gini = 0.0\nsamples = 1\nvalue = [1, 0]"] ;
85 -> 87 ;
88 [label="X[3] <= 0.02\ngini = 0.346\nsamples = 18\nvalue = [4, 14]"] ;
34 -> 88 ;
89 [label="X[13] <= 161750.676\ngini = 0.219\nsamples = 16\nvalue = [2, 14]"] ;
88 -> 89 ;
90 [label="gini = 0.0\nsamples = 13\nvalue = [0, 13]"] ;
89 -> 90 ;
91 [label="X[24] <= 0.019\ngini = 0.444\nsamples = 3\nvalue = [2, 1]"] ;
89 -> 91 ;
92 [label="gini = 0.0\nsamples = 2\nvalue = [2, 0]"] ;
91 -> 92 ;
93 [label="gini = 0.0\nsamples = 1\nvalue = [0, 1]"] ;
91 -> 93 ;
94 [label="gini = 0.0\nsamples = 2\nvalue = [2, 0]"] ;
88 -> 94 ;
95 [label="X[9] <= -0.215\ngini = 0.124\nsamples = 15\nvalue = [14, 1]"] ;
33 -> 95 ;
96 [label="gini = 0.0\nsamples = 1\nvalue = [0, 1]"] ;
95 -> 96 ;
97 [label="gini = 0.0\nsamples = 14\nvalue = [14, 0]"] ;
95 -> 97 ;
98 [label="X[39] <= 0.99\ngini = 0.48\nsamples = 185\nvalue = [74, 111]"] ;
32 -> 98 ;
99 [label="X[41] <= -0.062\ngini = 0.33\nsamples = 48\nvalue = [10, 38]"] ;
98 -> 99 ;
100 [label="X[70] <= -0.178\ngini = 0.469\nsamples = 24\nvalue = [9, 15]"] ;
99 -> 100 ;
101 [label="gini = 0.0\nsamples = 7\nvalue = [0, 7]"] ;
100 -> 101 ;
102 [label="X[47] <= -18.604\ngini = 0.498\nsamples = 17\nvalue = [9, 8]"] ;
100 -> 102 ;
103 [label="X[61] <= -24.624\ngini = 0.346\nsamples = 9\nvalue = [2, 7]"] ;
102 -> 103 ;
104 [label="X[45] <= 0.0\ngini = 0.444\nsamples = 3\nvalue = [2, 1]"] ;
103 -> 104 ;
105 [label="gini = 0.0\nsamples = 2\nvalue = [2, 0]"] ;
104 -> 105 ;
106 [label="gini = 0.0\nsamples = 1\nvalue = [0, 1]"] ;
104 -> 106 ;
107 [label="gini = 0.0\nsamples = 6\nvalue = [0, 6]"] ;
103 -> 107 ;
108 [label="X[59] <= 42.936\ngini = 0.219\nsamples = 8\nvalue = [7, 1]"] ;
102 -> 108 ;
109 [label="gini = 0.0\nsamples = 1\nvalue = [0, 1]"] ;
108 -> 109 ;
110 [label="gini = 0.0\nsamples = 7\nvalue = [7, 0]"] ;
108 -> 110 ;
111 [label="X[9] <= -0.13\ngini = 0.08\nsamples = 24\nvalue = [1, 23]"] ;
99 -> 111 ;
112 [label="gini = 0.0\nsamples = 1\nvalue = [1, 0]"] ;
111 -> 112 ;
113 [label="gini = 0.0\nsamples = 23\nvalue = [0, 23]"] ;
111 -> 113 ;
114 [label="X[61] <= -17.079\ngini = 0.498\nsamples = 137\nvalue = [64, 73]"] ;
98 -> 114 ;
115 [label="X[64] <= 35.075\ngini = 0.413\nsamples = 24\nvalue = [17, 7]"] ;
114 -> 115 ;
116 [label="X[67] <= 0.015\ngini = 0.32\nsamples = 5\nvalue = [1, 4]"] ;
115 -> 116 ;
117 [label="gini = 0.0\nsamples = 1\nvalue = [1, 0]"] ;
116 -> 117 ;
118 [label="gini = 0.0\nsamples = 4\nvalue = [0, 4]"] ;
116 -> 118 ;
119 [label="X[8] <= -1561249408.0\ngini = 0.266\nsamples = 19\nvalue = [16, 3]"] ;
115 -> 119 ;
120 [label="gini = 0.0\nsamples = 1\nvalue = [0, 1]"] ;
119 -> 120 ;
121 [label="X[6] <= 44393160.0\ngini = 0.198\nsamples = 18\nvalue = [16, 2]"] ;
119 -> 121 ;
122 [label="X[15] <= 0.0\ngini = 0.111\nsamples = 17\nvalue = [16, 1]"] ;
121 -> 122 ;
123 [label="gini = 0.0\nsamples = 1\nvalue = [0, 1]"] ;
122 -> 123 ;
124 [label="gini = 0.0\nsamples = 16\nvalue = [16, 0]"] ;
122 -> 124 ;
125 [label="gini = 0.0\nsamples = 1\nvalue = [0, 1]"] ;
121 -> 125 ;
126 [label="X[36] <= 14.12\ngini = 0.486\nsamples = 113\nvalue = [47, 66]"] ;
114 -> 126 ;
127 [label="X[9] <= -0.125\ngini = 0.298\nsamples = 11\nvalue = [9, 2]"] ;
126 -> 127 ;
128 [label="gini = 0.0\nsamples = 2\nvalue = [0, 2]"] ;
127 -> 128 ;
129 [label="gini = 0.0\nsamples = 9\nvalue = [9, 0]"] ;
127 -> 129 ;
130 [label="X[44] <= -67.866\ngini = 0.468\nsamples = 102\nvalue = [38, 64]"] ;
126 -> 130 ;
131 [label="gini = 0.0\nsamples = 4\nvalue = [4, 0]"] ;
130 -> 131 ;
132 [label="X[38] <= 16.699\ngini = 0.453\nsamples = 98\nvalue = [34, 64]"] ;
130 -> 132 ;
133 [label="X[67] <= 0.02\ngini = 0.494\nsamples = 63\nvalue = [28, 35]"] ;
132 -> 133 ;
134 [label="X[39] <= 1.028\ngini = 0.474\nsamples = 57\nvalue = [22, 35]"] ;
133 -> 134 ;
135 [label="X[10] <= 71.624\ngini = 0.219\nsamples = 16\nvalue = [2, 14]"] ;
134 -> 135 ;
136 [label="gini = 0.0\nsamples = 1\nvalue = [1, 0]"] ;
135 -> 136 ;
137 [label="X[0] <= 54.0\ngini = 0.124\nsamples = 15\nvalue = [1, 14]"] ;
135 -> 137 ;
138 [label="gini = 0.0\nsamples = 1\nvalue = [1, 0]"] ;
137 -> 138 ;
139 [label="gini = 0.0\nsamples = 14\nvalue = [0, 14]"] ;
137 -> 139 ;
140 [label="X[70] <= -0.389\ngini = 0.5\nsamples = 41\nvalue = [20, 21]"] ;
134 -> 140 ;
141 [label="X[15] <= 0.0\ngini = 0.298\nsamples = 11\nvalue = [2, 9]"] ;
140 -> 141 ;
142 [label="gini = 0.0\nsamples = 8\nvalue = [0, 8]"] ;
141 -> 142 ;
143 [label="X[67] <= 0.02\ngini = 0.444\nsamples = 3\nvalue = [2, 1]"] ;
141 -> 143 ;
144 [label="gini = 0.0\nsamples = 2\nvalue = [2, 0]"] ;
143 -> 144 ;
145 [label="gini = 0.0\nsamples = 1\nvalue = [0, 1]"] ;
143 -> 145 ;
146 [label="X[70] <= 0.555\ngini = 0.48\nsamples = 30\nvalue = [18, 12]"] ;
140 -> 146 ;
147 [label="X[68] <= 1.906\ngini = 0.403\nsamples = 25\nvalue = [18, 7]"] ;
146 -> 147 ;
148 [label="X[44] <= 94.946\ngini = 0.266\nsamples = 19\nvalue = [16, 3]"] ;
147 -> 148 ;
149 [label="X[45] <= 0.0\ngini = 0.117\nsamples = 16\nvalue = [15, 1]"] ;
148 -> 149 ;
150 [label="gini = 0.0\nsamples = 15\nvalue = [15, 0]"] ;
149 -> 150 ;
151 [label="gini = 0.0\nsamples = 1\nvalue = [0, 1]"] ;
149 -> 151 ;
152 [label="X[14] <= 1046.533\ngini = 0.444\nsamples = 3\nvalue = [1, 2]"] ;
148 -> 152 ;
153 [label="gini = 0.0\nsamples = 2\nvalue = [0, 2]"] ;
152 -> 153 ;
154 [label="gini = 0.0\nsamples = 1\nvalue = [1, 0]"] ;
152 -> 154 ;
155 [label="X[7] <= 314757920.0\ngini = 0.444\nsamples = 6\nvalue = [2, 4]"] ;
147 -> 155 ;
156 [label="gini = 0.0\nsamples = 4\nvalue = [0, 4]"] ;
155 -> 156 ;
157 [label="gini = 0.0\nsamples = 2\nvalue = [2, 0]"] ;
155 -> 157 ;
158 [label="gini = 0.0\nsamples = 5\nvalue = [0, 5]"] ;
146 -> 158 ;
159 [label="gini = 0.0\nsamples = 6\nvalue = [6, 0]"] ;
133 -> 159 ;
160 [label="X[39] <= 0.997\ngini = 0.284\nsamples = 35\nvalue = [6, 29]"] ;
132 -> 160 ;
161 [label="gini = 0.0\nsamples = 2\nvalue = [2, 0]"] ;
160 -> 161 ;
162 [label="X[33] <= 0.0\ngini = 0.213\nsamples = 33\nvalue = [4, 29]"] ;
160 -> 162 ;
163 [label="gini = 0.0\nsamples = 21\nvalue = [0, 21]"] ;
162 -> 163 ;
164 [label="X[15] <= 0.0\ngini = 0.444\nsamples = 12\nvalue = [4, 8]"] ;
162 -> 164 ;
165 [label="gini = 0.0\nsamples = 2\nvalue = [2, 0]"] ;
164 -> 165 ;
166 [label="X[48] <= 15.312\ngini = 0.32\nsamples = 10\nvalue = [2, 8]"] ;
164 -> 166 ;
167 [label="X[13] <= 56141.567\ngini = 0.198\nsamples = 9\nvalue = [1, 8]"] ;
166 -> 167 ;
168 [label="gini = 0.0\nsamples = 8\nvalue = [0, 8]"] ;
167 -> 168 ;
169 [label="gini = 0.0\nsamples = 1\nvalue = [1, 0]"] ;
167 -> 169 ;
170 [label="gini = 0.0\nsamples = 1\nvalue = [1, 0]"] ;
166 -> 170 ;
171 [label="X[9] <= 0.095\ngini = 0.463\nsamples = 74\nvalue = [47, 27]"] ;
31 -> 171 ;
172 [label="X[6] <= 16232982.5\ngini = 0.441\nsamples = 70\nvalue = [47, 23]"] ;
171 -> 172 ;
173 [label="X[10] <= 3701.542\ngini = 0.172\nsamples = 21\nvalue = [19, 2]"] ;
172 -> 173 ;
174 [label="X[7] <= 260404992.0\ngini = 0.1\nsamples = 19\nvalue = [18, 1]"] ;
173 -> 174 ;
175 [label="gini = 0.0\nsamples = 17\nvalue = [17, 0]"] ;
174 -> 175 ;
176 [label="X[22] <= 0.015\ngini = 0.5\nsamples = 2\nvalue = [1, 1]"] ;
174 -> 176 ;
177 [label="gini = 0.0\nsamples = 1\nvalue = [1, 0]"] ;
176 -> 177 ;
178 [label="gini = 0.0\nsamples = 1\nvalue = [0, 1]"] ;
176 -> 178 ;
179 [label="X[10] <= 4190.973\ngini = 0.5\nsamples = 2\nvalue = [1, 1]"] ;
173 -> 179 ;
180 [label="gini = 0.0\nsamples = 1\nvalue = [0, 1]"] ;
179 -> 180 ;
181 [label="gini = 0.0\nsamples = 1\nvalue = [1, 0]"] ;
179 -> 181 ;
182 [label="X[39] <= 1.033\ngini = 0.49\nsamples = 49\nvalue = [28, 21]"] ;
172 -> 182 ;
183 [label="gini = 0.0\nsamples = 7\nvalue = [7, 0]"] ;
182 -> 183 ;
184 [label="X[15] <= 0.0\ngini = 0.5\nsamples = 42\nvalue = [21, 21]"] ;
182 -> 184 ;
185 [label="X[48] <= 8.886\ngini = 0.475\nsamples = 31\nvalue = [19, 12]"] ;
184 -> 185 ;
186 [label="X[55] <= 54.0\ngini = 0.495\nsamples = 20\nvalue = [9, 11]"] ;
185 -> 186 ;
187 [label="X[36] <= 36.481\ngini = 0.198\nsamples = 9\nvalue = [1, 8]"] ;
186 -> 187 ;
188 [label="gini = 0.0\nsamples = 8\nvalue = [0, 8]"] ;
187 -> 188 ;
189 [label="gini = 0.0\nsamples = 1\nvalue = [1, 0]"] ;
187 -> 189 ;
190 [label="X[65] <= -60.994\ngini = 0.397\nsamples = 11\nvalue = [8, 3]"] ;
186 -> 190 ;
191 [label="gini = 0.0\nsamples = 2\nvalue = [0, 2]"] ;
190 -> 191 ;
192 [label="X[38] <= 9.037\ngini = 0.198\nsamples = 9\nvalue = [8, 1]"] ;
190 -> 192 ;
193 [label="gini = 0.0\nsamples = 1\nvalue = [0, 1]"] ;
192 -> 193 ;
194 [label="gini = 0.0\nsamples = 8\nvalue = [8, 0]"] ;
192 -> 194 ;
195 [label="X[42] <= -0.155\ngini = 0.165\nsamples = 11\nvalue = [10, 1]"] ;
185 -> 195 ;
196 [label="gini = 0.0\nsamples = 1\nvalue = [0, 1]"] ;
195 -> 196 ;
197 [label="gini = 0.0\nsamples = 10\nvalue = [10, 0]"] ;
195 -> 197 ;
198 [label="X[60] <= 62.075\ngini = 0.298\nsamples = 11\nvalue = [2, 9]"] ;
184 -> 198 ;
199 [label="gini = 0.0\nsamples = 2\nvalue = [2, 0]"] ;
198 -> 199 ;
200 [label="gini = 0.0\nsamples = 9\nvalue = [0, 9]"] ;
198 -> 200 ;
201 [label="gini = 0.0\nsamples = 4\nvalue = [0, 4]"] ;
171 -> 201 ;
202 [label="X[43] <= 23.144\ngini = 0.394\nsamples = 37\nvalue = [27, 10]"] ;
28 -> 202 ;
203 [label="gini = 0.0\nsamples = 5\nvalue = [0, 5]"] ;
202 -> 203 ;
204 [label="X[10] <= -1330.013\ngini = 0.264\nsamples = 32\nvalue = [27, 5]"] ;
202 -> 204 ;
205 [label="X[8] <= -80050172.0\ngini = 0.32\nsamples = 5\nvalue = [1, 4]"] ;
204 -> 205 ;
206 [label="gini = 0.0\nsamples = 4\nvalue = [0, 4]"] ;
205 -> 206 ;
207 [label="gini = 0.0\nsamples = 1\nvalue = [1, 0]"] ;
205 -> 207 ;
208 [label="X[6] <= 13159190.5\ngini = 0.071\nsamples = 27\nvalue = [26, 1]"] ;
204 -> 208 ;
209 [label="gini = 0.0\nsamples = 1\nvalue = [0, 1]"] ;
208 -> 209 ;
210 [label="gini = 0.0\nsamples = 26\nvalue = [26, 0]"] ;
208 -> 210 ;
211 [label="X[43] <= 27.25\ngini = 0.34\nsamples = 23\nvalue = [5, 18]"] ;
27 -> 211 ;
212 [label="X[56] <= 0.013\ngini = 0.245\nsamples = 21\nvalue = [3, 18]"] ;
211 -> 212 ;
213 [label="X[38] <= 31.866\ngini = 0.444\nsamples = 3\nvalue = [2, 1]"] ;
212 -> 213 ;
214 [label="gini = 0.0\nsamples = 1\nvalue = [0, 1]"] ;
213 -> 214 ;
215 [label="gini = 0.0\nsamples = 2\nvalue = [2, 0]"] ;
213 -> 215 ;
216 [label="X[38] <= 12.785\ngini = 0.105\nsamples = 18\nvalue = [1, 17]"] ;
212 -> 216 ;
217 [label="gini = 0.0\nsamples = 1\nvalue = [1, 0]"] ;
216 -> 217 ;
218 [label="gini = 0.0\nsamples = 17\nvalue = [0, 17]"] ;
216 -> 218 ;
219 [label="gini = 0.0\nsamples = 2\nvalue = [2, 0]"] ;
211 -> 219 ;
220 [label="X[35] <= 0.015\ngini = 0.441\nsamples = 143\nvalue = [96, 47]"] ;
0 -> 220 [labeldistance=2.5, labelangle=-45, headlabel="False"] ;
221 [label="X[64] <= 89.417\ngini = 0.444\nsamples = 15\nvalue = [5, 10]"] ;
220 -> 221 ;
222 [label="X[17] <= 0.015\ngini = 0.278\nsamples = 12\nvalue = [2, 10]"] ;
221 -> 222 ;
223 [label="gini = 0.0\nsamples = 1\nvalue = [1, 0]"] ;
222 -> 223 ;
224 [label="X[9] <= 0.213\ngini = 0.165\nsamples = 11\nvalue = [1, 10]"] ;
222 -> 224 ;
225 [label="gini = 0.0\nsamples = 10\nvalue = [0, 10]"] ;
224 -> 225 ;
226 [label="gini = 0.0\nsamples = 1\nvalue = [1, 0]"] ;
224 -> 226 ;
227 [label="gini = 0.0\nsamples = 3\nvalue = [3, 0]"] ;
221 -> 227 ;
228 [label="X[55] <= 38.0\ngini = 0.411\nsamples = 128\nvalue = [91, 37]"] ;
220 -> 228 ;
229 [label="X[3] <= 0.016\ngini = 0.476\nsamples = 69\nvalue = [42, 27]"] ;
228 -> 229 ;
230 [label="X[44] <= 18.532\ngini = 0.391\nsamples = 15\nvalue = [4, 11]"] ;
229 -> 230 ;
231 [label="X[19] <= 0.0\ngini = 0.48\nsamples = 5\nvalue = [3, 2]"] ;
230 -> 231 ;
232 [label="gini = 0.0\nsamples = 2\nvalue = [2, 0]"] ;
231 -> 232 ;
233 [label="X[19] <= 0.001\ngini = 0.444\nsamples = 3\nvalue = [1, 2]"] ;
231 -> 233 ;
234 [label="gini = 0.0\nsamples = 2\nvalue = [0, 2]"] ;
233 -> 234 ;
235 [label="gini = 0.0\nsamples = 1\nvalue = [1, 0]"] ;
233 -> 235 ;
236 [label="X[17] <= 0.017\ngini = 0.18\nsamples = 10\nvalue = [1, 9]"] ;
230 -> 236 ;
237 [label="gini = 0.0\nsamples = 9\nvalue = [0, 9]"] ;
236 -> 237 ;
238 [label="gini = 0.0\nsamples = 1\nvalue = [1, 0]"] ;
236 -> 238 ;
239 [label="X[37] <= 18.056\ngini = 0.417\nsamples = 54\nvalue = [38, 16]"] ;
229 -> 239 ;
240 [label="X[43] <= 24.728\ngini = 0.497\nsamples = 28\nvalue = [15, 13]"] ;
239 -> 240 ;
241 [label="X[66] <= -0.0\ngini = 0.401\nsamples = 18\nvalue = [13, 5]"] ;
240 -> 241 ;
242 [label="X[66] <= -0.0\ngini = 0.5\nsamples = 10\nvalue = [5, 5]"] ;
241 -> 242 ;
243 [label="X[66] <= -0.0\ngini = 0.408\nsamples = 7\nvalue = [5, 2]"] ;
242 -> 243 ;
244 [label="X[61] <= -22.832\ngini = 0.444\nsamples = 3\nvalue = [1, 2]"] ;
243 -> 244 ;
245 [label="gini = 0.0\nsamples = 1\nvalue = [1, 0]"] ;
244 -> 245 ;
246 [label="gini = 0.0\nsamples = 2\nvalue = [0, 2]"] ;
244 -> 246 ;
247 [label="gini = 0.0\nsamples = 4\nvalue = [4, 0]"] ;
243 -> 247 ;
248 [label="gini = 0.0\nsamples = 3\nvalue = [0, 3]"] ;
242 -> 248 ;
249 [label="gini = 0.0\nsamples = 8\nvalue = [8, 0]"] ;
241 -> 249 ;
250 [label="X[62] <= 59.707\ngini = 0.32\nsamples = 10\nvalue = [2, 8]"] ;
240 -> 250 ;
251 [label="gini = 0.0\nsamples = 8\nvalue = [0, 8]"] ;
250 -> 251 ;
252 [label="gini = 0.0\nsamples = 2\nvalue = [2, 0]"] ;
250 -> 252 ;
253 [label="X[8] <= -1077124608.0\ngini = 0.204\nsamples = 26\nvalue = [23, 3]"] ;
239 -> 253 ;
254 [label="gini = 0.0\nsamples = 3\nvalue = [0, 3]"] ;
253 -> 254 ;
255 [label="gini = 0.0\nsamples = 23\nvalue = [23, 0]"] ;
253 -> 255 ;
256 [label="X[14] <= 961.122\ngini = 0.282\nsamples = 59\nvalue = [49, 10]"] ;
228 -> 256 ;
257 [label="gini = 0.0\nsamples = 4\nvalue = [0, 4]"] ;
256 -> 257 ;
258 [label="X[69] <= -0.543\ngini = 0.194\nsamples = 55\nvalue = [49, 6]"] ;
256 -> 258 ;
259 [label="X[1] <= 494.5\ngini = 0.49\nsamples = 7\nvalue = [4, 3]"] ;
258 -> 259 ;
260 [label="gini = 0.0\nsamples = 3\nvalue = [3, 0]"] ;
259 -> 260 ;
261 [label="X[15] <= 0.0\ngini = 0.375\nsamples = 4\nvalue = [1, 3]"] ;
259 -> 261 ;
262 [label="gini = 0.0\nsamples = 3\nvalue = [0, 3]"] ;
261 -> 262 ;
263 [label="gini = 0.0\nsamples = 1\nvalue = [1, 0]"] ;
261 -> 263 ;
264 [label="X[47] <= 62.712\ngini = 0.117\nsamples = 48\nvalue = [45, 3]"] ;
258 -> 264 ;
265 [label="X[38] <= 8.294\ngini = 0.081\nsamples = 47\nvalue = [45, 2]"] ;
264 -> 265 ;
266 [label="gini = 0.0\nsamples = 1\nvalue = [0, 1]"] ;
265 -> 266 ;
267 [label="X[65] <= -6.868\ngini = 0.043\nsamples = 46\nvalue = [45, 1]"] ;
265 -> 267 ;
268 [label="gini = 0.0\nsamples = 43\nvalue = [43, 0]"] ;
267 -> 268 ;
269 [label="X[56] <= 0.019\ngini = 0.444\nsamples = 3\nvalue = [2, 1]"] ;
267 -> 269 ;
270 [label="gini = 0.0\nsamples = 2\nvalue = [2, 0]"] ;
269 -> 270 ;
271 [label="gini = 0.0\nsamples = 1\nvalue = [0, 1]"] ;
269 -> 271 ;
272 [label="gini = 0.0\nsamples = 1\nvalue = [0, 1]"] ;
264 -> 272 ;
}